60 50
_ 0.5383668 -0.4557276 -0.14057626 1.224428 -0.8985264 0.4807802 1.2329754 0.1087967 0.059294038 -0.2889358 -0.3121367 -0.039133694 0.00443553 0.91846293 -0.5211693 -0.22532465 0.40334842 1.2031608 -1.3217225 -1.0480989 -0.055721916 0.35305297 0.44203752 -0.17054175 0.5203205 -0.40834367 -0.816549 0.14697132 -0.3528276 0.2566875 -0.4735528 0.38616395 -0.6489798 -0.3299702 -0.9787812 0.40964893 -0.2075268 -0.1110049 0.4377204 0.24756163 0.3211655 -0.16049479 0.14258333 -0.65462375 1.0081723 1.4196819 -0.017357372 -0.22887611 -0.42019922 1.3859566
e 0.11904321 -0.28385964 0.21159987 0.56994474 -0.078998126 -0.009949258 1.6756694 -0.12076157 0.008679367 0.47217906 -0.85820854 0.24357904 -0.44994336 -0.6178838 -0.2874439 -0.19713326 0.6818825 0.8975077 -0.4131235 -0.91407365 -0.0378157 0.4621366 0.25466013 -0.9129602 0.08869242 0.20038994 -0.06784037 -0.13717622 -0.33918235 0.13044067 -0.18551098 0.023130842 -0.23693097 -0.52951324 -0.9480234 -0.28536204 0.424558 -0.5049326 -0.033651803 0.043793827 0.29125863 -0.26181987 0.37897503 -0.9407989 0.9036762 0.6988421 -0.24117412 -0.5433244 0.32226175 0.9238246
t 0.32039115 0.19874768 0.5248799 0.47947052 -0.32318515 -0.13649124 1.0951947 -0.19935058 -0.05320192 -0.62067986 -0.14361992 -0.5078227 -0.08595433 0.31246108 -0.23495695 0.29181004 0.4117244 0.7003231 -0.77176595 -0.56950116 0.60731906 0.5980455 -0.13380721 -1.0962286 0.22209045 0.34810317 -0.04128479 -0.29691148 -0.097400635 0.2962268 -0.5064893 0.044113766 -0.7298449 0.00929917 -0.5550985 -0.105177045 -0.43197855 -0.06590845 0.8684884 -0.097824834 -0.45064536 -0.020158855 0.6735307 -0.7134093 0.7159762 0.7077088 0.10334693 -0.3404609 0.29284477 0.6707061
a 0.3963636 -0.12146657 -0.18122421 0.6528382 0.15879986 0.35924602 1.2141676 0.4095702 0.5165093 0.7280653 -0.35209334 0.29457152 -0.5663687 -0.3684526 -0.06750941 -0.030859642 0.95488834 0.68954104 -0.7004022 -1.0704229 0.6137794 0.3044277 0.12336342 0.058929294 -0.17214735 0.47094208 -0.02435745 -0.1190382 -0.16418767 -0.392087 -0.5441394 0.203628 -0.5955052 -0.61569875 -0.67456836 -0.015708407 -0.34615391 -0.13401274 0.25210014 0.22924118 -0.17222938 -0.07098772 0.41718233 -0.5504454 0.5944295 0.9612046 0.29955006 -0.680724 0.4489284 0.69136965
o 0.44968992 0.21609144 0.14694956 0.6308005 -0.42241907 0.24345464 1.6006427 0.36941704 0.35119587 0.6200177 -0.70011294 -0.21729752 -0.40248406 -0.085238665 0.24092057 -0.20980546 0.95694685 0.7842543 -0.87153786 -1.1854595 0.20986694 0.24085839 -0.14557374 -0.8854913 0.026772475 0.0802719 0.24683295 0.13548055 -0.11549381 0.10009111 -0.32068872 -0.48676088 -0.9554023 -0.6186581 -0.8119599 0.06323226 0.28032783 -0.11724789 0.45760098 0.36501208 -0.029489134 -0.27322564 0.22532661 -0.069960915 0.54184455 1.2475542 0.10520238 -0.44086814 -0.036635965 0.15569419
n 0.6038009 -0.31238556 -0.11024317 0.2891742 -0.62406945 0.572446 0.5787955 -0.6777615 0.11079798 -0.21360669 -0.03632246 -0.34753165 -0.22791274 0.42019835 -1.0323645 0.2724952 0.5236891 0.7478735 -0.59724206 -0.2581769 0.3121648 0.5118052 0.24351643 -0.070890345 -0.23794824 -0.24400745 0.41729373 -0.37732998 0.010241168 -0.3330588 -0.7222954 -0.2585144 -0.35763806 -0.16752662 -0.41922757 -0.71233606 -0.22459291 -0.6447894 0.40115872 -0.039387163 0.24375868 -0.23579964 1.1650308 -0.30428398 1.6980945 1.0899177 -0.17752805 -0.7117518 0.41834703 0.5510984
i 0.60809207 0.14637 -0.3911006 0.1708203 0.39449748 0.32721367 1.5316272 0.10245729 0.031931758 0.34393463 -0.79571974 0.5652183 -0.43319952 -0.22758882 -0.15341467 -0.05937591 0.45494494 0.81087565 -1.1278942 -0.31110263 0.06896879 0.554507 0.05438415 -0.33904865 0.15244299 -0.12099111 -0.3119709 -0.11740418 -0.2337178 0.09351706 -0.340067 0.4612753 -0.36016318 -0.95787364 -0.6737898 -0.50977314 0.021067886 -0.20020802 0.4520041 0.022650653 0.2313742 -0.09171139 0.50022256 -0.74697 0.50209486 0.862952 0.42075127 -0.7389921 -0.16041006 0.34858882
s 0.39821795 0.19316414 0.085628144 0.3115211 0.08855028 0.1734991 0.6013381 -0.15407437 0.40008748 -0.3623948 -0.4154666 -0.46761325 -0.066609725 0.56645197 -0.22449794 -0.27182892 0.57121605 1.0024724 -0.685429 -0.7714166 0.28729412 0.12611555 0.17096442 -0.34709263 0.05035975 0.028765067 -0.24209888 0.10640876 -0.0068769488 0.10163198 -0.74203086 -0.10342111 -0.47441757 -0.015885418 -0.45394236 -0.17938381 -0.15179318 0.18014382 0.40859497 0.15460584 -0.25665832 -0.120992266 0.64864725 -0.48667398 1.0188091 0.7028433 -0.09731275 0.15291303 0.55286133 0.34971175
h 0.76741767 -0.26727703 -0.6433487 0.16474739 -0.6397599 0.68515307 0.7623318 0.14583221 0.37953913 -0.0013304951 -0.9724394 -0.42446473 -0.31791517 0.8049921 -0.95487857 -0.38069522 0.261972 1.1457897 -0.10216915 -0.45669538 0.033588685 0.44208246 -0.21998377 0.21992022 -0.4882778 0.20035383 0.17570622 -0.37245443 -0.3243472 -0.09017256 -0.9368964 0.37139192 -0.9138159 -0.49311173 -0.34733665 -0.46303782 -0.25962937 -0.097151294 0.90503144 0.28231105 -0.18168128 -0.1771457 0.0121088205 -0.23854494 0.9991484 0.6249504 -0.039998364 -0.11399458 0.32544485 0.13888606
r 0.31176886 -0.3776404 -0.14741781 0.08968032 0.03382449 -0.0224573 0.60186666 0.1649761 0.7423405 -0.17928436 -0.54813015 -0.35635325 -0.16272175 0.5368469 -0.5716939 -0.10192815 0.45797357 1.0903 -0.8860106 -0.60648483 0.23785481 0.38340354 -0.39878693 -0.9621448 0.21107493 -0.6356399 -0.644661 -0.41554263 -0.30556053 0.2618206 -1.0375087 -0.12751397 0.09653752 -0.29354855 -0.10929436 -0.21243864 -0.3558814 -0.18277457 0.51827943 0.3151521 -0.29411662 -0.3294102 0.3111115 -0.43065655 0.9135871 1.3514787 0.06452345 -0.67642915 0.60576427 0.5758164
d 0.38795912 -0.24682198 0.13661015 0.9919618 -0.2348155 0.12375416 1.0353565 0.6452808 0.65453535 -0.5522601 -0.20611064 -0.025799893 -0.15430605 0.3448071 -0.29398644 -0.24919154 0.58610636 0.69663113 -0.90852326 -0.32032305 0.5102208 0.8811395 0.16550675 -0.29081544 0.016910022 0.48435608 -0.4128685 0.016106734 -0.32513356 0.3342694 -0.4996645 0.5848238 -0.50622576 0.3329784 -0.40480897 -0.15952176 0.060543135 0.36843598 0.8456345 0.11721868 -0.26061147 -0.13629992 -0.14024715 -0.7205622 0.88612485 0.5061999 0.35651124 -0.23132266 0.6741773 0.6487138
l 0.62350357 -0.30099198 -0.16786708 1.100926 -0.097529545 0.5224654 0.61789924 -0.19634227 0.2081124 -0.33804786 0.066586085 -0.37859964 0.14560752 0.34932503 -0.3031929 -0.069763996 0.47051105 0.9325992 -1.2828394 -0.5623544 0.32717505 0.33772054 -0.49299228 -0.29304832 -0.33070126 0.2086178 -0.23125927 -0.45974213 -0.25498986 -0.58049875 -0.59573513 -0.088884965 -0.27406028 -0.4606842 -0.005191857 -0.26249486 0.26990187 0.23604849 0.13415731 0.055436403 0.10118932 -0.5310823 0.3173231 -0.25316247 1.0323045 1.0876186 0.5639165 -0.39383855 0.58611095 0.5537303
u 0.62930006 0.13736613 -0.48870382 -0.11471658 0.40878305 0.12883049 1.645102 -0.079777166 -0.32920164 -0.6981794 0.46100345 0.0944671 -0.3018334 0.5071476 -0.15416989 -0.26487315 1.096957 0.7351838 -0.03157537 -1.2847444 0.73759997 -0.18332496 0.19431254 -0.3513872 0.2268293 0.08076087 -0.20934859 -0.2759782 0.06617072 0.36866984 -0.2392815 0.85299504 -0.16386624 -1.0034738 -0.6094394 -0.625081 0.62453234 -0.47193655 -0.034954194 -0.5454546 0.45317203 -0.22018085 0.9176697 -0.83148026 0.2392562 1.0039035 -0.16039935 -0.559486 0.1947823 0.6284166
m 0.7636319 -0.49754474 0.28334194 0.52791387 0.14269122 -0.03694853 0.41376224 0.31320265 0.08063697 -0.10860619 0.17365392 -0.32064214 -0.6050406 0.70122796 -0.12079752 -0.12837972 0.1853156 0.7709046 -0.48404554 -0.74438196 0.39816487 1.1078094 -0.086273946 -0.82143855 -0.18015748 -0.14323838 -0.5499821 -0.19317298 0.31616074 -0.24769105 -0.62867737 0.14690688 -0.7554023 -0.053017218 0.28623667 0.030072035 0.21230489 0.037741486 -0.08681177 -0.06200243 -0.012568103 -0.5411105 -0.18798685 -0.008146693 0.49212325 0.85454965 -0.04795434 -0.35756835 0.78125733 0.43673703
c 0.3007739 0.07768613 0.2417214 0.63236153 -0.36272442 0.14361909 1.0741297 -0.12183637 0.5707235 -0.22597207 -0.023114989 -0.69819653 -0.17214291 0.31467482 -0.19064695 0.10219887 0.3906615 0.9284768 -0.90623367 -0.7179083 0.07146383 0.51350826 0.2850822 -0.5450091 0.54534495 -0.42781308 0.022884242 0.13233498 0.17138629 -0.014710392 -0.62689203 0.13152412 -0.48686707 -0.21334547 -0.9492275 0.03962943 -0.079289995 0.08708417 0.70916665 -0.026771383 0.13734241 -0.053847697 0.35402343 -0.30622375 0.97288156 0.5840942 -0.55414796 0.42594486 0.86507916 0.94885767
f 0.38365558 -0.21793006 -0.05411397 0.49448815 0.22328664 -0.10271057 0.3270096 0.23963135 0.15321442 -0.59602886 -0.37089396 -0.43778208 -0.6235644 0.14453995 -1.0200135 0.3364295 0.25113553 0.27284154 0.00951076 -0.8752904 0.5392517 1.2070638 -0.13675256 -0.58329105 -0.17669454 -0.66051275 0.0036421963 -0.2994112 0.119190685 -0.19299418 -0.2933103 0.23320335 -1.8804533 -0.17471634 -0.5431465 -0.2840458 -0.67113775 0.19251673 0.8206357 -0.51783764 -0.054531235 -0.5067929 0.69572115 -0.4484795 0.42187372 0.26163125 -0.6362587 0.16246772 0.84008425 0.6825713
w 0.18012464 -0.30772477 0.6098218 0.3791146 -0.16853672 -0.5843382 0.8662402 0.20397738 0.17511696 -0.083813965 0.2608504 -1.0228674 -0.09224104 -0.15793954 -0.6616572 0.6215892 0.1658731 0.74559325 -0.312376 -0.4885659 0.412628 0.89737815 -0.2590181 0.29162538 0.40515757 0.28812823 0.21809724 -0.27092475 0.5956059 -0.46443832 -0.5309571 0.9202742 -0.5356648 0.56196535 -0.24536552 0.25150454 -0.18849474 -0.5955536 0.15414599 -0.105909236 -0.11017943 0.3389223 0.16579807 -0.94967204 0.008318626 0.45869812 0.16369294 -0.40395382 0.9937417 0.7346823
y 0.51204425 0.35596576 0.3719881 0.17064115 0.32695237 0.07530862 0.98137105 0.33195668 0.7674917 -0.7352805 -0.6248149 -0.25354767 0.020456508 -0.58604985 -0.49003816 -0.4210819 0.9773223 0.06504887 -1.0172696 -1.0353975 -0.41844025 -0.112974264 0.30575743 0.18222296 0.070393436 -0.26206973 -0.09694364 -0.5520513 -0.7018676 0.2551681 -0.03307201 0.08730941 -0.21431065 -0.115520746 -0.02619401 0.059648346 0.36972645 -0.19044898 0.19858654 0.011576314 0.20648815 -0.0839226 0.13270026 -0.3564968 1.3053683 0.029688986 -0.51807 0.035278518 0.3695102 0.5690664
g -0.105276495 -0.36977333 0.5373966 0.71624064 -0.3459429 -0.12543494 0.78531176 0.42351013 0.11895836 -0.28501672 -0.36104375 -0.116548866 -0.90428543 0.4529118 -0.5787958 -0.24707286 0.5397974 0.98883015 -1.4465879 -0.6843263 -0.034231972 1.1187167 0.44880274 0.019759985 0.71939635 0.29553616 -0.30138928 0.1240936 0.09734503 0.1738441 -0.27220052 0.011156824 -0.53455716 0.047625534 -0.55144185 0.18474633 -0.0714553 0.39775652 0.5798456 0.55987036 0.14035343 0.4080262 -0.3184645 -1.1303661 -0.18764842 0.61392915 0.15015955 0.46069744 1.0324495 0.6184974
p 0.888712 0.08397484 0.101109736 0.6335985 0.658917 0.018819109 0.5758689 0.14714816 0.49277338 -0.12760065 0.20074798 -0.26308092 -0.36333412 0.44821596 0.08410875 0.14349 -0.28706604 0.71819377 -0.17937665 -0.7296567 0.10873149 1.1032171 0.6738086 -0.72812 -0.031644985 -0.51006186 -0.38791803 0.6473276 0.21484293 -0.46730694 -0.97979915 0.2279993 -1.2512246 0.5617447 -0.7130413 -0.2871824 -0.1285037 -0.17004469 0.4807471 -0.16990064 -0.030688545 -0.20247167 0.51785535 -0.016991587 1.1457549 0.0513136 -0.15689996 0.027450858 0.36442944 0.49035844
<s> -0.954011 0.5664165 -0.49241796 1.0698669 -0.5455279 0.32230344 -0.11133503 -0.40274525 -2.1380014 -0.019798165 -0.12238468 -0.1744652 0.58337533 0.04087654 0.23192658 0.17204373 0.086981215 0.54714715 0.25784642 -0.3475143 0.12046203 -0.087143 -0.046019886 -0.11148443 0.6190996 -0.9284668 -0.2189593 0.9215993 -0.3909833 0.08727756 -0.002299258 -0.4370243 0.0036950572 -0.10831675 0.5140167 -0.58511513 -0.2192811 -0.13250414 0.70171803 -0.34822908 -1.3138078 0.05335312 -0.67176664 0.3571811 0.22042412 -1.1269505 0.1322854 -0.04508085 0.65213466 0.2801174
</s> -2.8212688 1.1365256 -0.7561897 1.3397752 0.6155164 0.43051958 -0.5099869 -0.4269471 -0.30216765 0.1726509 1.4835896 0.72841245 -2.1459856 0.6797052 0.9046051 0.060837872 -3.0134864 -0.107368276 1.7111125 1.0395684 -0.8024011 -1.1488401 -0.43098873 1.3374732 0.82577837 -0.6596126 -0.05906808 1.3375582 1.2424594 -0.4576591 2.4265928 -0.9545168 -0.19997336 -0.998378 1.635315 0.97665787 -1.3702419 0.85871565 0.95588267 -0.5083368 -0.7625201 0.20484376 -2.1533492 0.9702171 -0.5563676 -0.5772039 -2.1658106 0.48944288 -1.8293566 -2.1172726
, -0.010728209 0.38003936 -0.45579392 1.650299 -0.13131133 0.5392877 1.5675303 0.04204223 -0.6346904 0.17392386 -0.4725767 -0.018397516 -0.6892713 0.07955858 -0.36389777 -0.010800791 0.54703736 1.6299187 -1.088047 -1.8599188 0.25274792 1.0453562 0.20651995 -0.08722641 0.55898654 -0.14752539 -0.44068393 0.6475974 -0.25171572 -0.0063872323 -0.4177722 0.0061222035 -0.8010253 -0.46099618 -0.66617304 -0.4395572 -0.4507978 0.11350085 1.272499 -0.008203987 -0.2565707 -0.07367282 0.045763426 -0.13607557 2.1517065 0.85135406 0.3556519 -1.319443 1.0369842 0.400326
b 0.38682267 -0.13255763 -0.1465878 0.31788287 -0.4105132 0.36338586 0.45136037 0.21193649 0.97770786 0.031161819 -0.10484986 -0.50777745 0.7799184 -0.5263192 -0.8775479 0.1454297 0.37134922 0.07469233 -0.7433974 -0.6300883 0.9041759 1.0366344 0.34412915 0.28737003 -0.19907601 -0.07256817 -0.35941896 0.116194665 0.31312484 -0.5324387 -0.71449655 0.49013287 -0.69652635 -0.22551182 0.07637143 0.22615035 -0.06756268 -0.019045727 0.56719613 0.30635983 -0.18676129 -0.42595315 0.019606465 -0.52829033 0.5163135 1.2490339 -0.42502943 -0.31271452 0.3303133 0.237785
v 1.0071685 -0.6853501 0.6530597 0.62299454 -0.29696417 0.6453183 0.1050956 -0.07988142 0.5167303 -0.51762265 0.14852084 -0.028439851 -0.553426 0.73977643 -0.9417275 -0.052725106 0.22701184 0.0107762385 0.2517082 -0.89223546 0.7809342 0.9832215 0.22152634 -0.14045213 -0.06579533 0.70100915 -0.34378254 -0.5271202 0.37933463 0.248093 -0.61605585 0.51105493 -0.9828926 0.15163317 0.66210914 -0.24986026 -0.81492 0.13884994 0.8283582 -0.39468265 -0.33179015 -0.024340894 0.16628718 -0.7610947 0.63717747 0.24312009 -0.22094202 -0.3433305 0.6350638 1.0790176
. -0.00082281366 -0.039457686 -0.08074535 0.8868942 0.82122743 0.85188967 -0.11534129 -0.5752696 0.6271137 1.2749645 -0.9394538 -0.23172264 0.11298698 0.78374404 -0.1638588 -0.020887636 0.21515778 -0.38431805 -0.25045836 -0.638737 0.12692694 0.2103072 -1.2320826 -0.96909946 1.7468783 -0.56026214 0.8939558 -0.3879512 -0.4109204 0.53948987 0.4917 0.04274029 -0.72827643 0.60238636 -1.4858065 -0.09338907 0.44909516 0.34591123 0.8011003 -0.2463063 1.0369896 -0.45728603 0.46921888 0.18770787 0.4079409 0.5965153 0.09397349 -0.2630479 1.0572878 -0.28908536
k 0.41441098 -0.06109764 -0.6147441 0.19924071 0.24525155 -0.23200583 0.5531159 0.22137047 -0.49366474 -0.74883085 -0.05529381 -0.13312644 -0.26123667 0.67138696 -0.084997304 -0.2903162 0.746297 1.2061945 -0.873423 -0.8025146 0.64521945 0.1183893 -0.3796251 0.55851007 -0.5678313 0.51117706 -0.15994492 -1.2255036 -0.9613735 -0.19028684 0.2326976 1.1032852 -1.0151814 0.48185676 0.12891826 0.51457185 -0.63490903 -0.008311008 0.26961383 -0.22427848 -0.5898567 -0.36326188 0.6968758 -0.4330157 0.2164405 0.5074474 0.6008939 0.2398701 0.67423934 -0.67354256
; -0.11775191 0.9235568 -0.42729694 1.4976143 -0.29103488 0.4772712 2.3808584 -0.07314196 -0.5274787 -0.17729203 -0.28641257 -0.54846907 -0.7217477 0.109587796 -0.7079886 0.29090407 0.21507789 1.8212769 -0.65484524 -2.892856 0.6037258 1.088384 -0.35975167 -0.536523 0.88091356 0.08392606 -0.12142235 0.32031325 -0.3916012 0.17556597 -0.5310423 -0.17170432 -0.6818518 -1.0680885 -0.942002 -0.6795835 -0.13136818 -0.25843588 1.4290421 0.24468248 -0.40010354 -0.26072854 -0.35962895 0.0046382784 2.0283175 1.4111505 -0.58113325 -1.6045698 1.0192465 0.6115174
" -0.4007557 0.25666165 -0.13035344 -1.7811326 0.6803141 -1.5199542 -2.7817833 1.0282043 -0.41388127 -0.8132162 2.2151947 0.21486947 0.81636155 -0.9402263 1.4330595 0.86438614 -0.48012313 -1.3006887 0.7640825 0.054004483 -0.094562426 -0.50317466 2.4934254 2.2465537 -0.9261522 1.4344692 -0.7253003 1.2434154 -0.35145858 -0.094460316 0.92141163 -0.3877279 2.9024003 0.90500754 1.7452275 -0.040891618 0.54934704 0.63107306 -1.7877642 -0.12707357 -0.076695874 0.6565434 -1.4343786 2.5739536 0.0974128 -2.8137515 1.4994113 -0.7512123 -1.8665632 -1.0581952
x 1.2566941 0.08972799 0.51087755 -0.24253272 0.92326635 0.5921638 0.45214546 -0.8105636 0.8864197 0.07768369 -0.97843784 -0.18209703 -1.0740905 0.53193676 0.3802497 -0.5130356 0.010329852 0.65074915 -0.157905 -0.5465926 0.050896857 0.8440027 0.98746854 -1.1175139 0.27026042 -0.29706776 -0.9044333 0.18165073 1.4948903 1.2348663 -1.3216289 0.37118393 0.4373919 -0.23988849 0.2013339 -0.8375097 -0.7267384 0.99148005 0.22891015 -0.45634782 -0.30487144 -0.12948531 0.8589624 0.2383456 0.85536 -0.640439 -0.07172392 0.2083318 0.030414946 1.207253
' -0.68542296 0.6436563 -0.14318946 -0.20154828 0.39016396 0.87981087 -0.48572326 -0.15174167 -1.9760981 0.7283828 -0.18027121 -0.42166293 0.386944 -0.43645373 0.5092661 -0.165898 1.6315078 1.9931589 -1.0147301 -0.32711565 0.07570475 0.22583255 1.3729924 0.6365564 -1.1655018 0.24209513 -0.7453385 -1.0067502 0.15045406 -0.21930814 -0.2762774 1.3208096 0.83021784 3.2460396 0.77985275 1.6266519 -0.49348032 -0.7391599 -0.7177484 1.1691612 0.616934 -0.9333068 0.0010745536 0.7974592 -1.3242823 0.1648621 -0.7455552 -0.3133894 -1.4517844 -2.6167326
q 1.2154697 -0.62303704 0.42357793 0.23349044 -1.1835859 1.0134398 0.17660356 -0.5473482 2.5319486 -0.92706317 0.8151295 -0.6568349 0.9197778 -0.58657855 -0.56203055 0.22630927 -0.6897261 1.0956331 -1.2916837 -0.54243076 -0.8784828 1.6018881 1.9180003 -0.16132075 -0.28738043 -0.09844013 -0.26049134 1.239041 0.15154113 -0.6926128 -1.0930063 -1.1155057 -0.85377187 -0.020234214 -0.055378582 -1.1473744 -0.0033642298 -0.027464865 1.2630599 1.0218874 0.25386983 -0.24953978 -0.42351878 0.5910836 -0.3705675 -0.18995227 -0.1126429 0.8199229 -0.20147525 -0.6916173
j 0.87991023 -0.9232985 -0.009008703 -0.2042329 -0.4238535 0.59107256 -0.2406719 -0.4609799 0.96557546 -0.7476737 1.0681667 0.16323364 0.6491592 -0.35255793 0.1341751 -0.35221305 0.16316955 1.1547322 -0.39521024 -0.92627555 -0.102687165 0.12264839 0.66613126 -0.53229475 -0.5872119 0.24325715 -0.7355708 0.39869538 -0.49043092 -0.21507847 0.09109282 -0.32825762 -0.5691068 -0.060641367 0.54731345 -0.44455695 -0.23349264 0.028399844 0.17288727 0.20403837 -0.2792022 -1.0804676 -0.13825257 0.38416794 -0.77189034 0.2230763 -0.21356319 -0.0456097 -0.46865916 -0.8117855
z -1.7313483 -0.4599454 -0.6388731 0.1717723 -0.29819417 -0.6292972 0.19327918 0.83527476 -0.33482605 -0.19118997 0.32292452 1.1703773 -0.78992003 0.7996977 -0.7146176 0.08210832 0.08492894 -1.4773235 -1.2497952 0.43612954 1.4054446 1.5405492 1.9469321 0.86951244 -0.55648494 0.23077375 -0.08931638 -1.8192636 -1.4873579 -0.12962016 -0.47579977 -0.93016577 1.4569011 0.34689477 0.744038 0.21509542 0.265203 -1.3472322 -0.44376957 0.7636577 -0.19904332 0.33750582 0.40526187 -0.5144201 -0.6721734 1.1694149 0.6599078 0.45264167 0.3671751 0.0599964
? 0.59337056 -0.81542933 -0.52801156 -0.3829067 0.21829766 -0.27669847 -1.3633825 0.10940384 0.19848654 0.95524955 -1.0726671 -0.6824731 2.3179982 0.1521871 -0.10796773 0.76917374 0.5920635 -0.63446313 -0.683581 -1.285981 0.76575875 1.1080663 0.23809119 -0.27021453 0.8671438 1.0805773 0.34672126 -0.44021994 -1.8302678 0.63682896 -0.12902723 0.68149066 1.2496892 1.3183311 -1.9576589 -0.6181908 1.5254173 0.21400373 -0.2704602 0.38214388 1.3766396 -0.2908651 0.21714516 0.8384041 -0.32113394 -0.49057084 2.3560462 -0.6822013 0.80019385 -0.10898903
: -0.30221608 0.5607535 -0.29605624 -0.084877655 0.0444354 -0.41748357 -0.24107364 0.4810708 -0.87106615 -0.0408505 0.2111722 -0.23721825 1.121218 -0.40767112 0.5469025 0.5176478 0.32080075 -0.3105505 -0.040594563 -1.2952635 0.46499437 0.35202786 1.1302712 0.22155792 0.16049938 0.92304534 -0.21747918 0.5224897 -0.8849905 0.407007 0.02205828 -0.12765016 1.293346 0.07217977 -0.28517705 -0.4520844 1.0101228 0.02973724 -0.14114253 0.16278479 0.28162786 0.092271924 -0.7072201 1.1575725 0.5144702 -0.8073785 0.78307426 -0.82454616 -0.2588244 -0.23491228
é -0.09614887 -0.10671671 -0.18130028 -0.036541462 -0.017459486 0.1164978 -0.41139752 -0.16668426 -0.55302984 0.16969533 -0.0058553955 -0.005587265 0.6448991 0.00869563 0.20338127 0.094388284 0.36957282 0.050455097 -0.17798415 -0.21320184 0.041765578 -0.08762513 0.3413687 -0.030489277 0.3102048 -0.048706654 -0.08940537 0.13625057 -0.47741845 0.16962914 0.21025151 -0.029898 0.4106506 0.40087575 -0.08334529 -0.15511619 0.33342087 -0.18770377 -0.15449451 0.01770196 0.16384347 -0.1346295 -0.00630872 0.31317535 -0.42810053 -0.30084088 0.39821205 -0.12713572 -0.04473933 -0.28137136
æ -0.024673028 -0.08246556 -0.04406351 -0.020798467 0.0025472476 0.11123201 -0.15630348 -0.12450562 -0.20756997 -0.012353643 0.08112553 0.15458012 0.20611879 0.08168583 0.17525202 -0.05289558 0.16293949 0.04038306 -0.10660404 0.05913199 -0.09489097 -0.15173511 0.20946018 -0.12449533 0.17380495 -0.12733527 0.0047656787 0.16911079 -0.27512497 0.04205615 0.12657364 -0.18007278 0.0059998315 0.044013653 -0.0050436133 -0.20488007 0.2034592 -0.08784126 -0.044186734 -0.059991866 0.0055676987 -0.055516217 0.047758665 0.030212196 -0.32220003 -0.22787109 0.15831374 0.15467803 -0.13908851 -0.088898264
ê -0.16483863 -0.13238442 -0.096049525 -0.020566009 -0.16021991 0.029278401 -0.3047991 -0.090702504 -0.51385325 0.14626035 -0.07775331 0.08127284 0.2471456 0.14472659 0.07197548 0.046321657 0.19629283 0.047808282 -0.1352868 0.13299012 -0.020956209 -0.093270324 0.03158788 0.0136346575 0.16759071 -0.123850934 0.04356092 0.03530337 -0.3008373 0.058987234 0.18475318 -0.17796849 0.052240487 -0.0016082696 0.07359677 -0.07336814 0.037904553 -0.14251123 -0.07388424 -0.0912869 -0.07966156 0.013518392 -0.048827253 0.02608907 -0.2229295 -0.16154082 0.2254684 0.010235803 0.041782998 -0.054906763
ö -0.10441743 -0.13875799 -0.085928544 0.044342514 -0.17946245 -0.024864027 -0.20107414 0.026680175 -0.42858917 0.10123497 0.015771654 -0.0072612 0.27471298 0.11599231 0.14910814 0.08480214 0.11300881 0.09319903 -0.1686503 0.09879246 -0.053351436 -0.09322808 0.04764458 0.03581613 0.17759718 -0.11736454 0.013288418 0.22020212 -0.22901542 -0.06217309 0.09628932 -0.106797345 -0.06701168 -0.08571944 0.06621633 -0.05480976 0.08497031 -0.11477111 -0.043041676 -0.09895264 -0.14146043 0.06637238 -0.15205057 -0.003751277 -0.17906457 -0.17268579 0.26428565 0.06986591 0.055089694 0.05707593
è -0.05400916 -0.09631918 -0.039937817 0.03072763 -0.112216204 0.02983005 -0.12670292 -0.037512526 -0.195854 0.010478242 0.031539276 0.039190315 0.2502564 0.017333386 0.050349295 0.002398539 0.12241374 0.039930996 -0.06134942 -0.0572 -0.02469191 -0.045693785 0.20367725 0.01726535 0.08845215 -0.06858085 -0.030610034 0.13078581 -0.2326362 0.0069267107 0.07965079 -0.14286718 0.070852086 -0.017081313 0.039634828 -0.11773922 0.12251325 -0.07948904 -0.051991906 -0.019968005 -0.010842068 -0.024354665 -0.08711384 0.03456711 -0.16426012 -0.19080819 0.06335765 0.08193912 0.01320989 0.040850848
ë -0.06867052 -0.06208131 -0.018984193 0.0735246 -0.058643237 0.048001815 -0.031973176 -0.023292586 -0.22423606 0.008602111 0.04830501 0.07416735 0.04713862 0.103631824 0.037396714 0.0060851392 0.08609622 0.054417506 -0.091569744 0.07391829 0.008106576 -0.052339327 0.07639359 0.04126712 0.12577517 -0.07503889 0.022017606 0.060472783 -0.1251741 -0.0416664 0.06778501 -0.085363805 -0.07311538 -0.08091926 0.08250962 -0.022336362 0.057726286 -0.11072379 -0.01120334 -0.058371868 -0.0929839 0.04508548 -0.038317874 -0.08874281 -0.06752756 -0.06965514 0.061404385 0.07548677 -0.032955613 0.052066755
à -0.078645706 -0.14709061 -0.06309 0.080066174 -0.13051817 0.056900565 -0.30128863 -0.04751551 -0.4221431 0.08084689 0.029853018 0.08896506 0.30760944 0.08291963 0.10115172 0.04286275 0.18642823 0.08745112 -0.15971963 0.04418191 -0.021030083 -0.03286051 0.25863186 0.06720851 0.18139459 -0.12793514 -0.10114451 0.22358912 -0.2346253 0.004810765 0.1026554 -0.15003645 0.05663352 -0.06455903 0.17195529 -0.18725449 0.0864681 -0.13069811 -0.058192454 -0.10485683 -0.15485293 0.034275662 -0.12071075 0.0073110303 -0.18460537 -0.30493772 0.27678102 0.040317543 -0.0067887986 0.067413144
ô 0.026358493 -0.08882127 -0.04740985 0.035400957 -0.070008054 0.041046966 -0.1452527 -0.052188985 -0.1371226 0.10493287 -0.056967482 0.058817048 0.112353705 0.06244148 0.05213939 -0.0010413242 0.05700027 -0.002568775 -0.018267721 0.08086233 -0.03727599 -0.0032900807 0.050390504 -0.05075926 0.12100465 -0.13950886 0.024714267 0.11008981 -0.098854974 0.025982691 0.014867862 -0.07111813 -0.05103008 0.0009240943 -0.022537792 -0.075069934 0.027926441 -0.065925874 -0.016479546 -0.029647147 -0.041489933 -0.003917543 -0.015455181 -0.010535727 -0.18093683 -0.15471593 0.09530042 0.1117804 -0.005318971 0.058188695
ñ -0.18229978 -0.10709281 -0.1014663 0.090904385 -0.13870671 -0.059974555 -0.15977994 0.03786303 -0.35976312 0.058867652 -0.04099678 0.065390565 0.15956172 0.08521524 0.04593548 0.07170948 0.08439974 0.038899135 -0.10346305 0.0294475 0.0015827965 0.049426027 0.18473823 0.049722034 0.13313603 -0.10273049 -0.019862713 0.16628754 -0.2789224 -0.02722166 0.08646887 -0.18048806 -0.0007696589 -0.064960614 0.014211755 -0.100342765 0.114791326 -0.13583587 -0.03475944 -0.003958453 -0.0649269 0.009923834 -0.110945515 -0.010902978 -0.14654514 -0.13984531 0.1789588 0.06261713 0.0355444 0.023169847
ä -0.03365276 -0.11675388 -0.055501662 0.041904096 -0.06475119 0.047650106 -0.12842529 -0.045270666 -0.3013248 0.08917049 -0.046028942 0.03996789 0.13574813 0.094516665 0.12132237 0.017779525 0.14897187 0.16315019 -0.11989467 0.046910472 -0.05320781 -0.06444318 0.121788435 -0.017157122 0.120918855 -0.087143175 -0.049419902 0.14173114 -0.1364692 0.0163734 0.073663004 -0.07758982 -0.009801669 -0.084004305 0.060821943 -0.08214766 0.050220307 -0.069142066 -0.01196018 -0.07157027 -0.07445214 -7.063185e-05 -0.08714599 -0.030724533 -0.1589438 -0.16249368 0.13455933 0.055581216 -0.02884262 0.054677997
ï -0.03779488 -0.04152381 0.012094034 -0.03584606 -0.014263666 0.0010859412 -0.06653485 0.004749814 -0.08066466 0.052158862 -0.013754999 0.03772514 -0.0044418494 0.0538198 0.09773178 0.0020962183 0.09588433 0.04282425 -0.024890916 0.087467514 0.010821385 -0.059509568 0.07242697 -0.030668173 0.034707166 -0.031644642 -0.0019841595 0.06788433 -0.02523452 -0.0072560706 0.0644004 -0.061581388 -0.06561355 -0.09774746 0.0720808 -0.059135996 0.022412637 -0.030261641 -0.02714425 -0.043532815 -0.074353725 0.035109196 -0.01710877 -0.07121936 -0.05988033 -0.09560613 0.03654725 0.044971056 -0.07874272 0.04596066
â -0.06261923 -0.084200546 -0.058130838 0.049659375 -0.09824794 -0.007985216 -0.095564164 0.038205124 -0.23058017 0.036264278 -0.023366231 0.008027528 0.1620424 0.08364399 0.039421413 0.060065445 0.14156684 0.048803676 -0.10437613 -0.017148 0.023215609 0.03575848 0.149449 -0.0104170935 0.12922817 -0.08013795 -0.0040889774 0.12556896 -0.22018442 0.006785892 0.035805315 -0.11185383 0.019728702 -0.057370607 0.018626526 -0.13438366 0.10002469 -0.076443546 -0.036916096 -0.028946156 -0.062846236 -0.0103304945 -0.084831834 -0.0075024795 -0.11815174 -0.11709661 0.192799 0.02115353 0.021913286 0.081666246
ü -0.07031579 -0.041675273 0.029073067 0.023258882 -0.050120156 -0.035156574 -0.0043026498 0.036533974 -0.06533936 -0.006730791 -0.018059129 0.012746712 0.05147671 0.021896172 0.04679421 0.009180698 0.10953243 0.048950218 -0.12152502 0.03742589 -0.046625484 -0.025577707 0.10402911 -0.015124144 0.060399886 -0.11264392 0.00643385 0.056749985 -0.09187125 -0.03234175 0.052646548 -0.075916156 -0.0589893 -0.06150356 0.071425 -0.056438327 0.066915415 -0.075836994 0.033374086 -0.041369803 -0.09689758 0.017114924 -0.035309687 -0.0850139 -0.028612973 -0.122349516 0.038566753 0.123314455 -0.009743563 0.083001204
ο -0.060139805 -0.23830257 -0.088280424 0.08477311 -0.13959052 0.092203066 -0.36962986 -0.06828474 -0.55868167 0.20853303 -0.0015110947 0.098799914 0.32846433 0.2271517 0.20833035 0.040486526 0.21948649 0.17009057 -0.1912501 0.2218362 -0.061213262 -0.13162598 0.22933418 0.003465226 0.28714827 -0.25460786 -0.0123343775 0.28395063 -0.3353539 -0.04327468 0.1662649 -0.19394535 -0.13355932 -0.10465683 0.21818165 -0.21497475 0.102394596 -0.1808288 -0.036385804 -0.16876325 -0.27889436 0.024170522 -0.14039204 -0.08907881 -0.33861026 -0.41760612 0.37152624 0.17552313 -0.039521255 0.12073262
ἶ -0.01232591 -0.13597731 -0.03710435 0.0021526916 -0.07468741 0.03703064 -0.28048947 -0.027924446 -0.2876195 0.13772029 -0.0055701435 0.0823799 0.21916616 0.1059034 0.13734208 0.030204758 0.13137354 0.024526605 -0.049625915 0.16066717 -0.034499932 -0.10555775 0.085734226 -0.015692502 0.15116684 -0.15122673 -0.012343205 0.1217241 -0.17557994 -0.0045062015 0.087170675 -0.10466965 -0.064893864 -0.0673231 0.17233044 -0.10106301 0.07425159 -0.12369078 -0.05144521 -0.13468109 -0.20536508 0.038646925 -0.08498773 -0.03317226 -0.3053803 -0.32535046 0.21944709 0.12991153 -0.069632754 0.08795949
δ -0.026185174 -0.13442877 -0.054475505 0.023114596 -0.08850265 0.02594256 -0.23848288 -0.039220553 -0.29628813 0.11891336 0.032645915 0.060001433 0.20325457 0.08991272 0.1526911 0.027556317 0.10377632 -0.016786639 -0.04690367 0.13486518 -0.046663534 -0.10267718 0.060154382 -0.0003960836 0.12570374 -0.15319864 -0.021359373 0.13780132 -0.14932667 -0.017452216 0.07162787 -0.07917774 -0.037616838 -0.030194458 0.13644607 -0.08901407 0.052220933 -0.091487706 -0.06332572 -0.07709355 -0.18702446 0.0408756 -0.0679528 -0.01230395 -0.27789122 -0.2773328 0.1742532 0.14602335 -0.04983702 0.083877206
α -0.032585546 -0.1477709 -0.07271807 0.1038548 -0.091339916 0.057130884 -0.17708363 -0.026186101 -0.36080244 0.110983126 -0.012019127 0.08659832 0.17788102 0.13627084 0.1034873 0.013363176 0.12822838 0.07953913 -0.104664974 0.07513944 -0.011455483 -0.047111142 0.11707992 -0.0061944136 0.12978679 -0.16813414 -0.027893117 0.1599578 -0.17498937 -0.005660362 0.06377171 -0.07975442 -0.10156001 -0.046557464 0.08659352 -0.10174867 0.0062373434 -0.07494243 -0.005400273 -0.097135134 -0.15582979 0.03679596 -0.06747707 -0.041916467 -0.2215434 -0.23622115 0.23128417 0.11835236 0.032905087 0.096696615
π -0.041899573 -0.099576116 -0.04324363 0.03805599 -0.070122 0.043385096 -0.15534358 -0.05491235 -0.25992092 0.06382746 -0.017107027 0.015148278 0.14014171 0.08509092 0.061834767 0.02246461 0.1341908 0.11979759 -0.14547631 0.08545541 -0.02982997 -0.052869476 0.11625019 0.0042412872 0.11795287 -0.13287365 0.008906832 0.12343828 -0.16290946 -0.01888311 0.069945395 -0.084464625 -0.03896865 -0.02541393 0.081285544 -0.10064773 0.052976217 -0.06963842 -0.023853654 -0.06107232 -0.07840124 -0.011110693 -0.06008861 -0.06228964 -0.12827404 -0.1507028 0.14655477 0.07608183 -0.012491651 0.039304305
ν -0.046417437 -0.11250445 -0.05105222 0.032429405 -0.056335144 0.03490528 -0.17600082 -0.060695343 -0.27040246 0.114579216 -0.0041289125 0.014600307 0.16404416 0.11066031 0.092930146 0.0053064777 0.15100674 0.11619669 -0.13039982 0.12891655 -0.046434067 -0.048000798 0.12601313 0.010333313 0.12724307 -0.14601794 -0.023377342 0.13109769 -0.1840594 -0.046866044 0.0930134 -0.12984899 -0.059591368 -0.063422136 0.104896575 -0.118914604 0.06745115 -0.092916496 -0.022683186 -0.0883229 -0.14844963 5.0216448e-05 -0.09511687 -0.060295466 -0.17803614 -0.16881846 0.1426168 0.09336943 -0.04099869 0.05383387
υ -0.037288323 -0.100565515 -0.024703452 0.03104066 -0.043545373 0.030475657 -0.10134215 -0.024465607 -0.22585486 0.07002482 -0.0061553847 0.010619437 0.10376803 0.08347094 0.06532906 0.0041542174 0.08198906 0.11253649 -0.10004601 0.050954636 -0.013162538 -0.027115937 0.107016556 -0.010012446 0.08005358 -0.109103255 -0.037021503 0.09372585 -0.11629519 -0.05155942 0.041330278 -0.08198294 -0.03599459 -0.03538666 0.103251964 -0.080656596 0.031887293 -0.07472296 -0.0050215432 -0.052473985 -0.090976186 0.0043780776 -0.045992162 -0.055096306 -0.09835507 -0.09288526 0.11467295 0.068074875 -0.038585287 0.015724845
ς -0.02377688 -0.08840398 -0.054256655 0.033466022 -0.041255914 0.039889283 -0.11710661 -0.050249 -0.13627703 0.08479719 -0.030667748 -0.0037745447 0.12121501 0.10086468 0.028432768 0.040209293 0.10008857 0.09071217 -0.08026957 0.062216204 0.011297276 -0.02320907 0.08819324 0.021822156 0.11179206 -0.08419474 0.0077241207 0.07288444 -0.10897264 -0.022681536 0.079251304 -0.05199172 -0.015423752 -0.046487603 0.043925937 -0.061393622 0.060632106 -0.057542924 -0.018975198 -0.06010357 -0.08300805 0.010191796 -0.042477943 -0.06123358 -0.074745186 -0.08581148 0.087564744 0.03934281 -0.030911397 0.042099647
å -0.01005102 -0.028497545 -0.02063026 0.03811735 -0.03212972 -0.0017995269 -0.02307186 -0.0005680721 -0.08044612 0.0175091 -0.010265297 0.006141196 0.018795392 0.038536966 -0.017085666 -0.026458517 -0.009414694 -0.0028605205 -0.014309029 0.015287291 -0.0147037 -0.0054629445 -0.0024536985 -0.0130688185 0.027439926 -0.058736436 -0.025941087 0.031820152 -0.04701364 0.016152648 -0.007287402 -0.023365738 -0.04889637 0.026080772 -0.053217012 -0.022511644 -0.0006862562 0.0026612813 0.012026214 -0.009153452 -0.006682208 0.01745483 0.0051916363 -0.028837357 -0.03145808 -0.009260173 0.023142403 0.009883268 0.074151605 0.031763155
ç -0.01124491 -0.014249407 0.0039138934 -0.05101616 0.039170194 -0.004568151 -0.038485892 0.0025980223 0.019656204 0.024265278 0.00973158 -0.0076043615 0.03748817 -0.011845807 0.039150394 -0.015330946 0.021404183 -0.08246074 0.025674833 0.033777688 0.004607237 -0.036643412 -0.020640336 -0.0020117094 0.008297529 0.012638461 0.011170202 -0.0065069 0.013712183 -0.002266123 -0.01086362 0.0300876 0.025702657 0.02236254 0.04260145 0.01392473 0.028403517 -0.028460465 -0.02680009 0.019532982 -0.02452529 -0.0031748766 0.011561265 0.012361202 -0.084359325 -0.032108806 -0.01629379 0.03784038 -0.05649031 -0.019796884
î -0.0035712007 -0.03031653 -0.017281171 0.02908044 -0.035685163 -0.01692951 -0.023733707 0.013925352 -0.09438292 0.009373136 0.009677633 -0.008497603 0.05013779 0.048101984 0.030224137 0.0026728176 0.04805985 0.046394438 -0.044258073 0.030943802 -0.0026626177 0.002681749 0.03617135 -0.01501776 0.018511849 -0.07383028 -0.014153542 0.0700217 -0.033409998 -0.009550867 -0.008897582 -0.031073727 -0.05352749 -0.021613048 0.03976075 -0.013085342 0.0034423992 -0.025765983 -0.0063636918 -0.034577664 -0.05887089 0.023063688 -0.012524806 -0.012834069 -0.029369242 -0.044781215 0.044665776 0.015759006 -0.021919966 0.0445216
